digraph Tree {
node [shape=box] ;
0 [label="Income <= 113.5\ngini = 0.174\nsamples = 5000\nvalue = [4520, 480]"] ;
1 [label="CCAvg <= 2.5\ngini = 0.041\nsamples = 4021\nvalue = [3937, 84]"] ;
0 -> 1 [labeldistance=2.5, labelangle=45, headlabel="True"] ;
2 [label="Income <= 106.5\ngini = 0.007\nsamples = 3723\nvalue = [3710, 13]"] ;
1 -> 2 ;
3 [label="gini = 0.0\nsamples = 3629\nvalue = [3629, 0]"] ;
2 -> 3 ;
4 [label="Family <= 3.5\ngini = 0.238\nsamples = 94\nvalue = [81, 13]"] ;
2 -> 4 ;
5 [label="Education <= 1.5\ngini = 0.157\nsamples = 70\nvalue = [64, 6]"] ;
4 -> 5 ;
6 [label="gini = 0.0\nsamples = 41\nvalue = [41, 0]"] ;
5 -> 6 ;
7 [label="gini = 0.328\nsamples = 29\nvalue = [23, 6]"] ;
5 -> 7 ;
8 [label="CCAvg <= 0.5\ngini = 0.413\nsamples = 24\nvalue = [17, 7]"] ;
4 -> 8 ;
9 [label="gini = 0.0\nsamples = 3\nvalue = [0, 3]"] ;
8 -> 9 ;
10 [label="gini = 0.308\nsamples = 21\nvalue = [17, 4]"] ;
8 -> 10 ;
11 [label="CD Account <= 0.5\ngini = 0.363\nsamples = 298\nvalue = [227, 71]"] ;
1 -> 11 ;
12 [label="Income <= 92.5\ngini = 0.305\nsamples = 272\nvalue = [221, 51]"] ;
11 -> 12 ;
13 [label="Age <= 26.5\ngini = 0.176\nsamples = 174\nvalue = [157, 17]"] ;
12 -> 13 ;
14 [label="gini = 0.0\nsamples = 2\nvalue = [0, 2]"] ;
13 -> 14 ;
15 [label="gini = 0.159\nsamples = 172\nvalue = [157, 15]"] ;
13 -> 15 ;
16 [label="Education <= 1.5\ngini = 0.453\nsamples = 98\nvalue = [64, 34]"] ;
12 -> 16 ;
17 [label="gini = 0.163\nsamples = 56\nvalue = [51, 5]"] ;
16 -> 17 ;
18 [label="gini = 0.427\nsamples = 42\nvalue = [13, 29]"] ;
16 -> 18 ;
19 [label="CCAvg <= 3.5\ngini = 0.355\nsamples = 26\nvalue = [6, 20]"] ;
11 -> 19 ;
20 [label="Experience <= 37.5\ngini = 0.133\nsamples = 14\nvalue = [1, 13]"] ;
19 -> 20 ;
21 [label="gini = 0.0\nsamples = 11\nvalue = [0, 11]"] ;
20 -> 21 ;
22 [label="gini = 0.444\nsamples = 3\nvalue = [1, 2]"] ;
20 -> 22 ;
23 [label="Mortgage <= 195.5\ngini = 0.486\nsamples = 12\nvalue = [5, 7]"] ;
19 -> 23 ;
24 [label="gini = 0.494\nsamples = 9\nvalue = [5, 4]"] ;
23 -> 24 ;
25 [label="gini = 0.0\nsamples = 3\nvalue = [0, 3]"] ;
23 -> 25 ;
26 [label="Education <= 1.5\ngini = 0.482\nsamples = 979\nvalue = [583, 396]"] ;
0 -> 26 [labeldistance=2.5, labelangle=-45, headlabel="False"] ;
27 [label="Family <= 2.5\ngini = 0.194\nsamples = 635\nvalue = [566, 69]"] ;
26 -> 27 ;
28 [label="gini = 0.0\nsamples = 566\nvalue = [566, 0]"] ;
27 -> 28 ;
29 [label="gini = 0.0\nsamples = 69\nvalue = [0, 69]"] ;
27 -> 29 ;
30 [label="Income <= 116.5\ngini = 0.094\nsamples = 344\nvalue = [17, 327]"] ;
26 -> 30 ;
31 [label="Age <= 60.5\ngini = 0.491\nsamples = 30\nvalue = [17, 13]"] ;
30 -> 31 ;
32 [label="CCAvg <= 1.5\ngini = 0.491\nsamples = 23\nvalue = [10, 13]"] ;
31 -> 32 ;
33 [label="gini = 0.375\nsamples = 8\nvalue = [6, 2]"] ;
32 -> 33 ;
34 [label="gini = 0.391\nsamples = 15\nvalue = [4, 11]"] ;
32 -> 34 ;
35 [label="gini = 0.0\nsamples = 7\nvalue = [7, 0]"] ;
31 -> 35 ;
36 [label="gini = 0.0\nsamples = 314\nvalue = [0, 314]"] ;
30 -> 36 ;
}