digraph Tree {
node [shape=box] ;
0 [label="Sex <= 0.5\ngini = 0.472\nsamples = 889\nvalue = [549, 340]"] ;
1 [label="Fare <= 47.5\ngini = 0.384\nsamples = 312\nvalue = [81, 231]"] ;
0 -> 1 [labeldistance=2.5, labelangle=45, headlabel="True"] ;
2 [label="Fare <= 43.5\ngini = 0.447\nsamples = 225\nvalue = [76, 149]"] ;
1 -> 2 ;
3 [label="Fare <= 10.5\ngini = 0.443\nsamples = 223\nvalue = [74, 149]"] ;
2 -> 3 ;
4 [label="Fare <= 7.5\ngini = 0.48\nsamples = 75\nvalue = [30, 45]"] ;
3 -> 4 ;
5 [label="Fare <= 6.5\ngini = 0.43\nsamples = 48\nvalue = [15, 33]"] ;
4 -> 5 ;
6 [label="gini = 0.0\nsamples = 1\nvalue = [1, 0]"] ;
5 -> 6 ;
7 [label="Age <= 22.5\ngini = 0.418\nsamples = 47\nvalue = [14, 33]"] ;
5 -> 7 ;
8 [label="Age <= 14.5\ngini = 0.305\nsamples = 16\nvalue = [3, 13]"] ;
7 -> 8 ;
9 [label="gini = 0.5\nsamples = 2\nvalue = [1, 1]"] ;
8 -> 9 ;
10 [label="gini = 0.245\nsamples = 14\nvalue = [2, 12]"] ;
8 -> 10 ;
11 [label="Age <= 38.0\ngini = 0.458\nsamples = 31\nvalue = [11, 20]"] ;
7 -> 11 ;
12 [label="gini = 0.48\nsamples = 10\nvalue = [6, 4]"] ;
11 -> 12 ;
13 [label="gini = 0.363\nsamples = 21\nvalue = [5, 16]"] ;
11 -> 13 ;
14 [label="Age <= 19.0\ngini = 0.494\nsamples = 27\nvalue = [15, 12]"] ;
4 -> 14 ;
15 [label="Age <= 8.5\ngini = 0.32\nsamples = 5\nvalue = [1, 4]"] ;
14 -> 15 ;
16 [label="gini = 0.0\nsamples = 1\nvalue = [1, 0]"] ;
15 -> 16 ;
17 [label="gini = 0.0\nsamples = 4\nvalue = [0, 4]"] ;
15 -> 17 ;
18 [label="Fare <= 9.5\ngini = 0.463\nsamples = 22\nvalue = [14, 8]"] ;
14 -> 18 ;
19 [label="Age <= 54.0\ngini = 0.26\nsamples = 13\nvalue = [11, 2]"] ;
18 -> 19 ;
20 [label="gini = 0.153\nsamples = 12\nvalue = [11, 1]"] ;
19 -> 20 ;
21 [label="gini = 0.0\nsamples = 1\nvalue = [0, 1]"] ;
19 -> 21 ;
22 [label="Age <= 53.5\ngini = 0.444\nsamples = 9\nvalue = [3, 6]"] ;
18 -> 22 ;
23 [label="gini = 0.375\nsamples = 8\nvalue = [2, 6]"] ;
22 -> 23 ;
24 [label="gini = 0.0\nsamples = 1\nvalue = [1, 0]"] ;
22 -> 24 ;
25 [label="Fare <= 13.5\ngini = 0.418\nsamples = 148\nvalue = [44, 104]"] ;
3 -> 25 ;
26 [label="Age <= 37.0\ngini = 0.128\nsamples = 29\nvalue = [2, 27]"] ;
25 -> 26 ;
27 [label="Age <= 25.5\ngini = 0.08\nsamples = 24\nvalue = [1, 23]"] ;
26 -> 27 ;
28 [label="Age <= 23.5\ngini = 0.18\nsamples = 10\nvalue = [1, 9]"] ;
27 -> 28 ;
29 [label="gini = 0.0\nsamples = 8\nvalue = [0, 8]"] ;
28 -> 29 ;
30 [label="gini = 0.5\nsamples = 2\nvalue = [1, 1]"] ;
28 -> 30 ;
31 [label="gini = 0.0\nsamples = 14\nvalue = [0, 14]"] ;
27 -> 31 ;
32 [label="Age <= 39.0\ngini = 0.32\nsamples = 5\nvalue = [1, 4]"] ;
26 -> 32 ;
33 [label="gini = 0.0\nsamples = 1\nvalue = [1, 0]"] ;
32 -> 33 ;
34 [label="gini = 0.0\nsamples = 4\nvalue = [0, 4]"] ;
32 -> 34 ;
35 [label="Fare <= 14.5\ngini = 0.457\nsamples = 119\nvalue = [42, 77]"] ;
25 -> 35 ;
36 [label="Age <= 26.0\ngini = 0.32\nsamples = 10\nvalue = [8, 2]"] ;
35 -> 36 ;
37 [label="Age <= 21.0\ngini = 0.48\nsamples = 5\nvalue = [3, 2]"] ;
36 -> 37 ;
38 [label="gini = 0.375\nsamples = 4\nvalue = [3, 1]"] ;
37 -> 38 ;
39 [label="gini = 0.0\nsamples = 1\nvalue = [0, 1]"] ;
37 -> 39 ;
40 [label="gini = 0.0\nsamples = 5\nvalue = [5, 0]"] ;
36 -> 40 ;
41 [label="Fare <= 26.5\ngini = 0.429\nsamples = 109\nvalue = [34, 75]"] ;
35 -> 41 ;
42 [label="Fare <= 25.5\ngini = 0.391\nsamples = 75\nvalue = [20, 55]"] ;
41 -> 42 ;
43 [label="gini = 0.44\nsamples = 55\nvalue = [18, 37]"] ;
42 -> 43 ;
44 [label="gini = 0.18\nsamples = 20\nvalue = [2, 18]"] ;
42 -> 44 ;
45 [label="Age <= 2.5\ngini = 0.484\nsamples = 34\nvalue = [14, 20]"] ;
41 -> 45 ;
46 [label="gini = 0.0\nsamples = 2\nvalue = [2, 0]"] ;
45 -> 46 ;
47 [label="gini = 0.469\nsamples = 32\nvalue = [12, 20]"] ;
45 -> 47 ;
48 [label="gini = 0.0\nsamples = 2\nvalue = [2, 0]"] ;
2 -> 48 ;
49 [label="Age <= 8.0\ngini = 0.108\nsamples = 87\nvalue = [5, 82]"] ;
1 -> 49 ;
50 [label="gini = 0.0\nsamples = 1\nvalue = [1, 0]"] ;
49 -> 50 ;
51 [label="Fare <= 70.0\ngini = 0.089\nsamples = 86\nvalue = [4, 82]"] ;
49 -> 51 ;
52 [label="Fare <= 67.5\ngini = 0.211\nsamples = 25\nvalue = [3, 22]"] ;
51 -> 52 ;
53 [label="gini = 0.0\nsamples = 20\nvalue = [0, 20]"] ;
52 -> 53 ;
54 [label="Age <= 34.5\ngini = 0.48\nsamples = 5\nvalue = [3, 2]"] ;
52 -> 54 ;
55 [label="gini = 0.0\nsamples = 2\nvalue = [0, 2]"] ;
54 -> 55 ;
56 [label="gini = 0.0\nsamples = 3\nvalue = [3, 0]"] ;
54 -> 56 ;
57 [label="Age <= 25.5\ngini = 0.032\nsamples = 61\nvalue = [1, 60]"] ;
51 -> 57 ;
58 [label="Age <= 24.5\ngini = 0.117\nsamples = 16\nvalue = [1, 15]"] ;
57 -> 58 ;
59 [label="gini = 0.0\nsamples = 15\nvalue = [0, 15]"] ;
58 -> 59 ;
60 [label="gini = 0.0\nsamples = 1\nvalue = [1, 0]"] ;
58 -> 60 ;
61 [label="gini = 0.0\nsamples = 45\nvalue = [0, 45]"] ;
57 -> 61 ;
62 [label="Age <= 6.5\ngini = 0.306\nsamples = 577\nvalue = [468, 109]"] ;
0 -> 62 [labeldistance=2.5, labelangle=-45, headlabel="False"] ;
63 [label="Fare <= 20.5\ngini = 0.444\nsamples = 24\nvalue = [8, 16]"] ;
62 -> 63 ;
64 [label="gini = 0.0\nsamples = 8\nvalue = [0, 8]"] ;
63 -> 64 ;
65 [label="Age <= 0.5\ngini = 0.5\nsamples = 16\nvalue = [8, 8]"] ;
63 -> 65 ;
66 [label="gini = 0.0\nsamples = 2\nvalue = [0, 2]"] ;
65 -> 66 ;
67 [label="Fare <= 63.5\ngini = 0.49\nsamples = 14\nvalue = [8, 6]"] ;
65 -> 67 ;
68 [label="Age <= 3.5\ngini = 0.473\nsamples = 13\nvalue = [8, 5]"] ;
67 -> 68 ;
69 [label="Age <= 2.5\ngini = 0.5\nsamples = 10\nvalue = [5, 5]"] ;
68 -> 69 ;
70 [label="Fare <= 23.5\ngini = 0.469\nsamples = 8\nvalue = [5, 3]"] ;
69 -> 70 ;
71 [label="gini = 0.0\nsamples = 1\nvalue = [1, 0]"] ;
70 -> 71 ;
72 [label="gini = 0.49\nsamples = 7\nvalue = [4, 3]"] ;
70 -> 72 ;
73 [label="gini = 0.0\nsamples = 2\nvalue = [0, 2]"] ;
69 -> 73 ;
74 [label="gini = 0.0\nsamples = 3\nvalue = [3, 0]"] ;
68 -> 74 ;
75 [label="gini = 0.0\nsamples = 1\nvalue = [0, 1]"] ;
67 -> 75 ;
76 [label="Fare <= 25.5\ngini = 0.28\nsamples = 553\nvalue = [460, 93]"] ;
62 -> 76 ;
77 [label="Age <= 13.5\ngini = 0.198\nsamples = 387\nvalue = [344, 43]"] ;
76 -> 77 ;
78 [label="Age <= 10.0\ngini = 0.375\nsamples = 4\nvalue = [1, 3]"] ;
77 -> 78 ;
79 [label="gini = 0.0\nsamples = 2\nvalue = [0, 2]"] ;
78 -> 79 ;
80 [label="Fare <= 14.5\ngini = 0.5\nsamples = 2\nvalue = [1, 1]"] ;
78 -> 80 ;
81 [label="gini = 0.0\nsamples = 1\nvalue = [0, 1]"] ;
80 -> 81 ;
82 [label="gini = 0.0\nsamples = 1\nvalue = [1, 0]"] ;
80 -> 82 ;
83 [label="Age <= 32.5\ngini = 0.187\nsamples = 383\nvalue = [343, 40]"] ;
77 -> 83 ;
84 [label="Age <= 30.5\ngini = 0.229\nsamples = 190\nvalue = [165, 25]"] ;
83 -> 84 ;
85 [label="Fare <= 2.0\ngini = 0.202\nsamples = 175\nvalue = [155, 20]"] ;
84 -> 85 ;
86 [label="Age <= 22.0\ngini = 0.5\nsamples = 2\nvalue = [1, 1]"] ;
85 -> 86 ;
87 [label="gini = 0.0\nsamples = 1\nvalue = [1, 0]"] ;
86 -> 87 ;
88 [label="gini = 0.0\nsamples = 1\nvalue = [0, 1]"] ;
86 -> 88 ;
89 [label="Fare <= 10.5\ngini = 0.196\nsamples = 173\nvalue = [154, 19]"] ;
85 -> 89 ;
90 [label="gini = 0.223\nsamples = 133\nvalue = [116, 17]"] ;
89 -> 90 ;
91 [label="gini = 0.095\nsamples = 40\nvalue = [38, 2]"] ;
89 -> 91 ;
92 [label="Fare <= 14.0\ngini = 0.444\nsamples = 15\nvalue = [10, 5]"] ;
84 -> 92 ;
93 [label="Fare <= 11.5\ngini = 0.459\nsamples = 14\nvalue = [9, 5]"] ;
92 -> 93 ;
94 [label="gini = 0.426\nsamples = 13\nvalue = [9, 4]"] ;
93 -> 94 ;
95 [label="gini = 0.0\nsamples = 1\nvalue = [0, 1]"] ;
93 -> 95 ;
96 [label="gini = 0.0\nsamples = 1\nvalue = [1, 0]"] ;
92 -> 96 ;
97 [label="Fare <= 9.5\ngini = 0.143\nsamples = 193\nvalue = [178, 15]"] ;
83 -> 97 ;
98 [label="Age <= 38.5\ngini = 0.098\nsamples = 135\nvalue = [128, 7]"] ;
97 -> 98 ;
99 [label="gini = 0.0\nsamples = 24\nvalue = [24, 0]"] ;
98 -> 99 ;
100 [label="Age <= 39.5\ngini = 0.118\nsamples = 111\nvalue = [104, 7]"] ;
98 -> 100 ;
101 [label="gini = 0.444\nsamples = 3\nvalue = [2, 1]"] ;
100 -> 101 ;
102 [label="gini = 0.105\nsamples = 108\nvalue = [102, 6]"] ;
100 -> 102 ;
103 [label="Age <= 41.5\ngini = 0.238\nsamples = 58\nvalue = [50, 8]"] ;
97 -> 103 ;
104 [label="Age <= 34.5\ngini = 0.095\nsamples = 20\nvalue = [19, 1]"] ;
103 -> 104 ;
105 [label="gini = 0.219\nsamples = 8\nvalue = [7, 1]"] ;
104 -> 105 ;
106 [label="gini = 0.0\nsamples = 12\nvalue = [12, 0]"] ;
104 -> 106 ;
107 [label="Fare <= 13.5\ngini = 0.301\nsamples = 38\nvalue = [31, 7]"] ;
103 -> 107 ;
108 [label="gini = 0.408\nsamples = 14\nvalue = [10, 4]"] ;
107 -> 108 ;
109 [label="gini = 0.219\nsamples = 24\nvalue = [21, 3]"] ;
107 -> 109 ;
110 [label="Fare <= 387.5\ngini = 0.421\nsamples = 166\nvalue = [116, 50]"] ;
76 -> 110 ;
111 [label="Age <= 53.0\ngini = 0.414\nsamples = 164\nvalue = [116, 48]"] ;
110 -> 111 ;
112 [label="Age <= 47.5\ngini = 0.438\nsamples = 139\nvalue = [94, 45]"] ;
111 -> 112 ;
113 [label="Age <= 22.5\ngini = 0.415\nsamples = 126\nvalue = [89, 37]"] ;
112 -> 113 ;
114 [label="Fare <= 109.0\ngini = 0.219\nsamples = 24\nvalue = [21, 3]"] ;
113 -> 114 ;
115 [label="gini = 0.095\nsamples = 20\nvalue = [19, 1]"] ;
114 -> 115 ;
116 [label="gini = 0.5\nsamples = 4\nvalue = [2, 2]"] ;
114 -> 116 ;
117 [label="Age <= 42.5\ngini = 0.444\nsamples = 102\nvalue = [68, 34]"] ;
113 -> 117 ;
118 [label="gini = 0.485\nsamples = 63\nvalue = [37, 26]"] ;
117 -> 118 ;
119 [label="gini = 0.326\nsamples = 39\nvalue = [31, 8]"] ;
117 -> 119 ;
120 [label="Fare <= 53.5\ngini = 0.473\nsamples = 13\nvalue = [5, 8]"] ;
112 -> 120 ;
121 [label="gini = 0.0\nsamples = 4\nvalue = [0, 4]"] ;
120 -> 121 ;
122 [label="Age <= 49.5\ngini = 0.494\nsamples = 9\nvalue = [5, 4]"] ;
120 -> 122 ;
123 [label="gini = 0.375\nsamples = 4\nvalue = [1, 3]"] ;
122 -> 123 ;
124 [label="gini = 0.32\nsamples = 5\nvalue = [4, 1]"] ;
122 -> 124 ;
125 [label="Age <= 75.5\ngini = 0.211\nsamples = 25\nvalue = [22, 3]"] ;
111 -> 125 ;
126 [label="Fare <= 34.5\ngini = 0.153\nsamples = 24\nvalue = [22, 2]"] ;
125 -> 126 ;
127 [label="gini = 0.0\nsamples = 14\nvalue = [14, 0]"] ;
126 -> 127 ;
128 [label="Fare <= 37.0\ngini = 0.32\nsamples = 10\nvalue = [8, 2]"] ;
126 -> 128 ;
129 [label="gini = 0.0\nsamples = 1\nvalue = [0, 1]"] ;
128 -> 129 ;
130 [label="gini = 0.198\nsamples = 9\nvalue = [8, 1]"] ;
128 -> 130 ;
131 [label="gini = 0.0\nsamples = 1\nvalue = [0, 1]"] ;
125 -> 131 ;
132 [label="gini = 0.0\nsamples = 2\nvalue = [0, 2]"] ;
110 -> 132 ;
}